{"name":"multivariateLinearRegression","weights":[[0.9999178312738973,0.00009851320988846842],[-0.000019684845130350966,0.9997278992136855],[-0.000002127375299039823,0.0000036727545368218422],[-1.5080493182031016e-7,2.2121356337725626e-8],[0.0000216076002358487,0.000014327559153405354],[-0.000004876915532750746,-0.0000030099487171196224],[0.0000055734792962937844,-0.000007123796834585219],[-0.00000771057048114576,0.000005058959737976691],[-0.000003811962662578546,-0.000005459809400227953],[0.00000903866442651923,0.000022302051720237523],[5.384486354356224e-8,2.326968717688464e-7],[-0.0018571127315483993,0.010560955330739377]],"inputs":11,"outputs":2,"intercept":true,"summary":{"regressionStatistics":{"standardError":0.003805546730986635,"observations":2},"variables":[{"label":"X Variable 1","coefficients":[0.9999178312738973,0.00009851320988846842],"standardError":0.0000344752090044885,"tStat":29003.96720274308},{"label":"X Variable 2","coefficients":[-0.000019684845130350966,0.9997278992136855],"standardError":0.00011566762199312431,"tStat":-0.170184575347465},{"label":"X Variable 3","coefficients":[-0.000002127375299039823,0.0000036727545368218422],"standardError":0.000002182439323546092,"tStat":-0.9747695049698796},{"label":"X Variable 4","coefficients":[-1.5080493182031016e-7,2.2121356337725626e-8],"standardError":1.7880471813062502e-8,"tStat":-8.434057747298382},{"label":"X Variable 5","coefficients":[0.0000216076002358487,0.000014327559153405354],"standardError":0.0000011743530886385369,"tStat":18.399577133057186},{"label":"X Variable 6","coefficients":[-0.000004876915532750746,-0.0000030099487171196224],"standardError":0.0000024780001654872624,"tStat":-1.9680852328723604},{"label":"X Variable 7","coefficients":[0.0000055734792962937844,-0.000007123796834585219],"standardError":0.000003756901417277197,"tStat":1.4835308881575995},{"label":"X Variable 8","coefficients":[-0.00000771057048114576,0.000005058959737976691],"standardError":0.000005861897700874695,"tStat":-1.3153710410188857},{"label":"X Variable 9","coefficients":[-0.000003811962662578546,-0.000005459809400227953],"standardError":0.000002084918768703796,"tStat":-1.8283506867504777},{"label":"X Variable 10","coefficients":[0.00000903866442651923,0.000022302051720237523],"standardError":0.0000052006367698885415,"tStat":1.7379918703134007},{"label":"X Variable 11","coefficients":[5.384486354356224e-8,2.326968717688464e-7],"standardError":2.5440283322400285e-7,"tStat":0.2116519806843173},{"label":"Intercept","coefficients":[-0.0018571127315483993,0.010560955330739377],"standardError":0.0037576515799682742,"tStat":-0.4942216413699747}]}}