{"name":"multivariateLinearRegression","weights":[[0.9999226714694291,0.00007867109046103048],[-0.00015481342596645412,0.9998157245187397],[-0.000005413677546461614,0.000005762539658655027],[-1.617133029985692e-7,2.3528298611028624e-8],[0.00002267644157876943,0.00001695239242761861],[-0.0000026695969465847953,-0.000002415007570127042],[0.000011418149282185834,-0.000011278647904403369],[-0.00000414742851690268,0.000011147349848505234],[-0.000005592319619088476,-0.000007936041575830249],[7.443405084828145e-7,0.00002170975283427087],[-2.708360874996708e-7,3.012950055005181e-7],[0.0026381754932008478,0.007201969545502118]],"inputs":11,"outputs":2,"intercept":true,"summary":{"regressionStatistics":{"standardError":0.004061269161538559,"observations":2},"variables":[{"label":"X Variable 1","coefficients":[0.9999226714694291,0.00007867109046103048],"standardError":0.00004752150918732063,"tStat":21041.47550381716},{"label":"X Variable 2","coefficients":[-0.00015481342596645412,0.9998157245187397],"standardError":0.00016674779162375648,"tStat":-0.9284286433955863},{"label":"X Variable 3","coefficients":[-0.000005413677546461614,0.000005762539658655027],"standardError":0.0000031933770888861706,"tStat":-1.6952828919900187},{"label":"X Variable 4","coefficients":[-1.617133029985692e-7,2.3528298611028624e-8],"standardError":2.6290425179104136e-8,"tStat":-6.151034146343909},{"label":"X Variable 5","coefficients":[0.00002267644157876943,0.00001695239242761861],"standardError":0.0000017318431062606852,"tStat":13.093819813580772},{"label":"X Variable 6","coefficients":[-0.0000026695969465847953,-0.000002415007570127042],"standardError":0.0000036677250285240125,"tStat":-0.7278618014772799},{"label":"X Variable 7","coefficients":[0.000011418149282185834,-0.000011278647904403369],"standardError":0.000005524420949450357,"tStat":2.066849971547129},{"label":"X Variable 8","coefficients":[-0.00000414742851690268,0.000011147349848505234],"standardError":0.000008679023766991775,"tStat":-0.47786809072654657},{"label":"X Variable 9","coefficients":[-0.000005592319619088476,-0.000007936041575830249],"standardError":0.0000030422296296807376,"tStat":-1.8382306070943613},{"label":"X Variable 10","coefficients":[7.443405084828145e-7,0.00002170975283427087],"standardError":0.000007712703819592888,"tStat":0.09650837448106547},{"label":"X Variable 11","coefficients":[-2.708360874996708e-7,3.012950055005181e-7],"standardError":3.667940703341059e-7,"tStat":-0.7383873115859568},{"label":"Intercept","coefficients":[0.0026381754932008478,0.007201969545502118],"standardError":0.005364114263192927,"tStat":0.4918194064774646}]}}