{"name":"multivariateLinearRegression","weights":[[0.9999178111038389,0.00007797761487524983],[-0.00015271740084697434,0.9998145707196886],[-0.000005365191625321039,0.0000056970891876909475],[-1.5586882654616368e-7,2.1622905077386102e-8],[0.000022569079855015186,0.00001722208275740731],[-0.0000029255265222673783,-0.000001922544470256918],[0.000011592943374428854,-0.000011081008139251423],[-0.000005733796240482369,0.000011500696724110854],[-0.000005398962673003566,-0.000008051417419166331],[0.0000015085507511001481,0.000021363768090539053],[-2.6046889594171155e-7,3.0369204867112973e-7],[0.0024453919531017797,0.007213325793586148]],"inputs":11,"outputs":2,"intercept":true,"summary":{"regressionStatistics":{"standardError":0.004086984749551538,"observations":2},"variables":[{"label":"X Variable 1","coefficients":[0.9999178111038389,0.00007797761487524983],"standardError":0.00004804435241725069,"tStat":20812.390235169674},{"label":"X Variable 2","coefficients":[-0.00015271740084697434,0.9998145707196886],"standardError":0.00016861767304255135,"tStat":-0.9057022202437551},{"label":"X Variable 3","coefficients":[-0.000005365191625321039,0.0000056970891876909475],"standardError":0.000003217990830325745,"tStat":-1.6672488854724117},{"label":"X Variable 4","coefficients":[-1.5586882654616368e-7,2.1622905077386102e-8],"standardError":2.6688187649698196e-8,"tStat":-5.840367603527635},{"label":"X Variable 5","coefficients":[0.000022569079855015186,0.00001722208275740731],"standardError":0.0000017639194088417405,"tStat":12.794847509408006},{"label":"X Variable 6","coefficients":[-0.0000029255265222673783,-0.000001922544470256918],"standardError":0.0000037160953011913287,"tStat":-0.7872582065722306},{"label":"X Variable 7","coefficients":[0.000011592943374428854,-0.000011081008139251423],"standardError":0.000005581615249151652,"tStat":2.0769871904357546},{"label":"X Variable 8","coefficients":[-0.000005733796240482369,0.000011500696724110854],"standardError":0.000008786796690501643,"tStat":-0.652546820240019},{"label":"X Variable 9","coefficients":[-0.000005398962673003566,-0.000008051417419166331],"standardError":0.0000030695253306877287,"tStat":-1.758891714959044},{"label":"X Variable 10","coefficients":[0.0000015085507511001481,0.000021363768090539053],"standardError":0.000007788301670258104,"tStat":0.19369444263580443},{"label":"X Variable 11","coefficients":[-2.6046889594171155e-7,3.0369204867112973e-7],"standardError":3.710257770471791e-7,"tStat":-0.7020237192538531},{"label":"Intercept","coefficients":[0.0024453919531017797,0.007213325793586148],"standardError":0.0054313746902590315,"tStat":0.4502344420257912}]}}