{"name":"multivariateLinearRegression","weights":[[0.9999210399888545,0.00007508103783218954],[-0.00013054829918520447,0.9997018151668947],[-0.0000041885677474832476,0.000004421347846428508],[-1.586556565605199e-7,1.0983446081336937e-8],[0.00002341564287524386,0.000017602049015818214],[-0.000003900448856581849,-0.000003016555929901739],[0.000008999760126021276,-0.000008646970499956567],[-0.00000768883986158283,0.0000073969873560829524],[-0.000003702589804370829,-0.000005932295892265215],[0.000005768542659660831,0.000023374624731462624],[-1.6484593289463902e-7,1.6227485239679932e-7],[0.0017565299586631,0.01075445335688513]],"inputs":11,"outputs":2,"intercept":true,"summary":{"regressionStatistics":{"standardError":0.004037144653014529,"observations":2},"variables":[{"label":"X Variable 1","coefficients":[0.9999210399888545,0.00007508103783218954],"standardError":0.000033403533227491166,"tStat":29934.58905017622},{"label":"X Variable 2","coefficients":[-0.00013054829918520447,0.9997018151668947],"standardError":0.00011721883940201768,"tStat":-1.1137143129140838},{"label":"X Variable 3","coefficients":[-0.0000041885677474832476,0.000004421347846428508],"standardError":0.000002244648938198072,"tStat":-1.8660235354423342},{"label":"X Variable 4","coefficients":[-1.586556565605199e-7,1.0983446081336937e-8],"standardError":1.8481674414784843e-8,"tStat":-8.584484987658891},{"label":"X Variable 5","coefficients":[0.00002341564287524386,0.000017602049015818214],"standardError":0.000001217672100651563,"tStat":19.229842633919596},{"label":"X Variable 6","coefficients":[-0.000003900448856581849,-0.000003016555929901739],"standardError":0.000002578685702299456,"tStat":-1.512572413576325},{"label":"X Variable 7","coefficients":[0.000008999760126021276,-0.000008646970499956567],"standardError":0.000003883258434688499,"tStat":2.317579496030427},{"label":"X Variable 8","coefficients":[-0.00000768883986158283,0.0000073969873560829524],"standardError":0.000006101454206009418,"tStat":-1.2601651347329577},{"label":"X Variable 9","coefficients":[-0.000003702589804370829,-0.000005932295892265215],"standardError":0.0000021387260943915418,"tStat":-1.7312127130632873},{"label":"X Variable 10","coefficients":[0.000005768542659660831,0.000023374624731462624],"standardError":0.000005421371574098843,"tStat":1.0640375006244978},{"label":"X Variable 11","coefficients":[-1.6484593289463902e-7,1.6227485239679932e-7],"standardError":2.5782062323153524e-7,"tStat":-0.6393822605362314},{"label":"Intercept","coefficients":[0.0017565299586631,0.01075445335688513],"standardError":0.003770732085783497,"tStat":0.4658326072238361}]}}